solver_type L2R_L2LOSS_SVC_DUAL
nr_class 2
label 1 -1
nr_feature 49
bias -1
w
-0.1842068925381721 
1.29633498009933 
0.527708449327831 
0.7348540884401165 
-2.595513437079869 
-1.490910696826595 
4.195090314825011 
5.059758831451533 
0.8782015469746712 
-7.530594833895454 
-2.160239116783927 
-2.064270011618216 
2.86749163709408 
0.6783595679443393 
0.5372458652945629 
0.3690294967327863 
-0.4746940751781171 
0.2165083114086961 
1.011948919695843 
0.7269773494711659 
1.707779489460029 
0.01779502274334385 
0.1095243110251786 
0.5629732927177279 
-0.0694797369719858 
-0.2021288895728869 
0.07833359734943095 
0.4478959375843867 
-0.1571652770909857 
0.3169918700835588 
0.310776891865425 
0.3858156550645581 
0.5732084296907588 
-0.7113962658902725 
0.6197370272294563 
0.3837490471795564 
0.09085641796180818 
-0.7028152828308427 
0.3457784164132181 
1.070907953451472 
-0.477302373684561 
0.5994517102003568 
0.1182135452285068 
0.6419421576435218 
0.4999695897362201 
0.3342310875428253 
0.7061206700413223 
-0.1541638206713078 
-0.7467702401057199 
